<?xml version='1.0' encoding='utf-8'?>
<BIF VERSION="0.3">
  <NETWORK>
    <NAME>UNTITLED</NAME>
    <VARIABLE TYPE="nature">
      <NAME>Age</NAME>
      <OUTCOME>2_young</OUTCOME>
      <OUTCOME>3_young_adult</OUTCOME>
      <OUTCOME>4_adult</OUTCOME>
      <OUTCOME>5_old_adult</OUTCOME>
      <PROPERTY>weight = None</PROPERTY>
    </VARIABLE>
    <VARIABLE TYPE="nature">
      <NAME>Alcohol</NAME>
      <OUTCOME>high</OUTCOME>
      <OUTCOME>low</OUTCOME>
      <PROPERTY>weight = None</PROPERTY>
    </VARIABLE>
    <VARIABLE TYPE="nature">
      <NAME>Anxiety</NAME>
      <OUTCOME>False</OUTCOME>
      <OUTCOME>True</OUTCOME>
      <PROPERTY>weight = None</PROPERTY>
    </VARIABLE>
    <VARIABLE TYPE="nature">
      <NAME>BMI</NAME>
      <OUTCOME>1_underweight</OUTCOME>
      <OUTCOME>2_normal</OUTCOME>
      <OUTCOME>3_overweight</OUTCOME>
      <OUTCOME>4_obese</OUTCOME>
      <PROPERTY>weight = None</PROPERTY>
    </VARIABLE>
    <VARIABLE TYPE="nature">
      <NAME>CRC</NAME>
      <OUTCOME>False</OUTCOME>
      <OUTCOME>True</OUTCOME>
      <PROPERTY>weight = None</PROPERTY>
    </VARIABLE>
    <VARIABLE TYPE="nature">
      <NAME>Depression</NAME>
      <OUTCOME>False</OUTCOME>
      <OUTCOME>True</OUTCOME>
      <PROPERTY>weight = None</PROPERTY>
    </VARIABLE>
    <VARIABLE TYPE="nature">
      <NAME>Diabetes</NAME>
      <OUTCOME>False</OUTCOME>
      <OUTCOME>True</OUTCOME>
      <PROPERTY>weight = None</PROPERTY>
    </VARIABLE>
    <VARIABLE TYPE="nature">
      <NAME>Hyperchol.</NAME>
      <OUTCOME>False</OUTCOME>
      <OUTCOME>True</OUTCOME>
      <PROPERTY>weight = None</PROPERTY>
    </VARIABLE>
    <VARIABLE TYPE="nature">
      <NAME>Hypertension</NAME>
      <OUTCOME>False</OUTCOME>
      <OUTCOME>True</OUTCOME>
      <PROPERTY>weight = None</PROPERTY>
    </VARIABLE>
    <VARIABLE TYPE="nature">
      <NAME>PA</NAME>
      <OUTCOME>1_0</OUTCOME>
      <OUTCOME>2_0</OUTCOME>
      <PROPERTY>weight = None</PROPERTY>
    </VARIABLE>
    <VARIABLE TYPE="nature">
      <NAME>SD</NAME>
      <OUTCOME>long</OUTCOME>
      <OUTCOME>normal</OUTCOME>
      <OUTCOME>short</OUTCOME>
      <PROPERTY>weight = None</PROPERTY>
    </VARIABLE>
    <VARIABLE TYPE="nature">
      <NAME>SES</NAME>
      <OUTCOME>0</OUTCOME>
      <OUTCOME>1</OUTCOME>
      <OUTCOME>2</OUTCOME>
      <PROPERTY>weight = None</PROPERTY>
    </VARIABLE>
    <VARIABLE TYPE="nature">
      <NAME>Sex</NAME>
      <OUTCOME>M</OUTCOME>
      <OUTCOME>W</OUTCOME>
      <PROPERTY>weight = None</PROPERTY>
    </VARIABLE>
    <VARIABLE TYPE="nature">
      <NAME>Smoking</NAME>
      <OUTCOME>1_not_smoker</OUTCOME>
      <OUTCOME>2_smoker</OUTCOME>
      <OUTCOME>3_ex_smoker</OUTCOME>
      <PROPERTY>weight = None</PROPERTY>
    </VARIABLE>
    <DEFINITION>
      <FOR>Age</FOR>
      <TABLE>0.19077957002165832 0.380052967954087 0.2983590968445218 0.1308083651797329 </TABLE>
    </DEFINITION>
    <DEFINITION>
      <FOR>Alcohol</FOR>
      <GIVEN>Age</GIVEN>
      <GIVEN>Sex</GIVEN>
      <GIVEN>Smoking</GIVEN>
      <TABLE>0.006440305583865264 0.9935596944161348 0.02500695181806019 0.9749930481819398 0.01925609242266547 0.9807439075773344 0.001413650521561668 0.9985863494784384 0.004426412564030092 0.9955735874359698 0.0029119637188060057 0.997088036281194 0.019231995335633367 0.9807680046643666 0.06138064777871372 0.9386193522212862 0.04471748808685117 0.9552825119131487 0.003020479932994712 0.9969795200670053 0.008328991327321716 0.9916710086726783 0.0069061695813000075 0.9930938304187 0.0520384413088511 0.9479615586911488 0.13432635249809807 0.8656736475019019 0.09703972874599984 0.9029602712540002 0.009248324142651204 0.9907516758573489 0.020016907062857123 0.9799830929371429 0.02159990872710505 0.978400091272895 0.10394340260441191 0.8960565973955881 0.21175689024509822 0.7882431097549019 0.16296160032806467 0.8370383996719354 0.019931973463702405 0.9800680265362977 0.03915393542784309 0.9608460645721568 0.03018189586972329 0.9698181041302768 </TABLE>
    </DEFINITION>
    <DEFINITION>
      <FOR>Anxiety</FOR>
      <GIVEN>Depression</GIVEN>
      <GIVEN>SD</GIVEN>
      <GIVEN>Sex</GIVEN>
      <GIVEN>Smoking</GIVEN>
      <TABLE>0.9798447317246096 0.020155268275390353 0.9709850533164363 0.029014946683563712 0.9873998727627022 0.01260012723729773 0.9845837570325079 0.015416242967492121 0.95390955834284 0.04609044165716002 0.9500612859537412 0.049938714046258874 0.9846910334419946 0.015308966558005427 0.9800218189399996 0.019978181060000374 0.9792194647038236 0.02078053529617648 0.9693870830337599 0.030612916966240106 0.9510172235882222 0.0489827764117778 0.9574265913694654 0.0425734086305346 0.9713367205132779 0.028663279486722017 0.9615512979389815 0.03844870206101855 0.9688288334320247 0.031171166567975254 0.9435728116153121 0.05642718838468797 0.924390763994637 0.07560923600536298 0.9252192170906567 0.07478078290934331 0.9157600015159332 0.08423999848406678 0.9721429230293989 0.02785707697060107 0.972142923029399 0.027857076970601077 0.9730719638275644 0.026928036172435506 0.9712818784369235 0.028718121563076515 0.9712456131491908 0.0287543868508092 0.8876357860084164 0.11236421399158356 0.9161136408741032 0.08388635912589675 0.87546415377684 0.12453584622316005 0.9001142209221751 0.09988577907782495 0.8879959223289625 0.11200407767103741 0.8583078719053834 0.14169212809461657 0.8723881201753155 0.1276118798246845 0.8862960700073934 0.11370392999260664 0.9262181115737711 0.07378188842622897 0.9101992508821257 0.08980074911787424 0.8503814207939188 0.14961857920608135 0.9121623083001792 0.08783769169982092 </TABLE>
    </DEFINITION>
    <DEFINITION>
      <FOR>BMI</FOR>
      <GIVEN>Age</GIVEN>
      <GIVEN>PA</GIVEN>
      <GIVEN>Sex</GIVEN>
      <GIVEN>Smoking</GIVEN>
      <TABLE>0.006932337466736637 0.40582762940004125 0.41923181787940667 0.16800821525381537 0.013099617041342708 0.4467914121862016 0.39100882650930435 0.1491001442631512 0.0053576084626682135 0.3357096691593726 0.45172678044877895 0.20720594192918024 0.04995608881816353 0.6548600388078837 0.20412065864118345 0.09106321373276931 0.06796865469111962 0.6401470999024407 0.1922240392288523 0.09966020617758743 0.040770745308526264 0.633626296072913 0.21541142488978707 0.11019153372877379 0.0029907909704495117 0.5354779870008917 0.37723561775651726 0.08429560427214153 0.008436353268890799 0.5318636156997094 0.3693617333382481 0.09033829769315163 0.001517427411461598 0.46413713511489063 0.4316639904766505 0.10268144699699733 0.05881787230526669 0.711782207417942 0.1644482218617812 0.06495169841501006 0.054191727659409786 0.7008679902323012 0.170365883691769 0.07457439841651985 0.036164178251928004 0.7025177935619817 0.18560494486691614 0.07571308331917408 0.0016416853401905825 0.30431183187191163 0.48154726180205715 0.21249922098584068 0.005710137983196865 0.34474246470457676 0.44949270111248835 0.20005469619973798 0.0012568957696225506 0.22830507034549102 0.4949273156915744 0.275510718193312 0.030358861015191328 0.6078667696946913 0.23996326931648665 0.1218110999736307 0.03941162249281421 0.5980091501936806 0.24983004256574032 0.11274918474776487 0.02206147780923371 0.5711155554686698 0.27454515438021254 0.13227781234188402 0.0016528336851368932 0.42692690231541025 0.4492684703813291 0.12215179361812376 0.004118361411031332 0.4023533748170968 0.4610152388283337 0.13251302494353823 0.0004864058878373469 0.32858561176472945 0.4995004284882047 0.17142755385922864 0.034010074759655895 0.6764520060697067 0.20335016724796512 0.0861877519226722 0.03607712750234684 0.672149290386597 0.20686744204152627 0.08490614006952986 0.02023086904329535 0.6472746522823389 0.23909582187748188 0.09339865679688383 0.001241755198881795 0.22034569583197072 0.5101192662566877 0.2682932827124598 0.00460530701258743 0.28510173917833026 0.46557183852777634 0.2447211152813058 0.0005433006181288496 0.14794937879882258 0.4959251753407117 0.35558214524233694 0.012451221106524246 0.49382198556648144 0.3194961630052555 0.17423063032173877 0.02342880458717709 0.5327436740543017 0.31230279584666965 0.13152472551185154 0.007733405936854497 0.4565987163400471 0.3500070177164292 0.1856608600066691 0.0008226450443940234 0.32162777515569335 0.5129409330099125 0.16460864679000026 0.0025453015189953435 0.31643175066536805 0.49340053099674325 0.18762241681889344 0.0004404807783827175 0.2054984957702211 0.548690936245838 0.24537008720555828 0.017710448696036822 0.5967616926894365 0.2829859830954345 0.10254187551909215 0.020386633520972912 0.6101968637843412 0.2742672643723716 0.09514923832231433 0.010340505434708502 0.5717898200833962 0.31015625341379804 0.10771342106809735 0.0008818544032110649 0.17016489038238797 0.5198011859577358 0.30915206925666505 0.007458112187011283 0.2757169493541711 0.4592844532040513 0.2575404852547663 0.0006036165339876574 0.11912855802074347 0.48280239734324365 0.39746542810202534 0.006456409364909241 0.36549946469566197 0.38565035501584005 0.2423937709235888 0.020055464304469573 0.46736119566648865 0.36587761008883013 0.1467057299402116 0.003204784408749747 0.3638900777522715 0.4029227683953148 0.2299823694436639 0.0006687416381990106 0.24913738704189445 0.5466563765532293 0.20353749476667715 0.005186148685584439 0.2968317203902961 0.499814006562494 0.1981681243616255 0.0003195145364412018 0.1635869286115046 0.5511847507371567 0.28490880611489755 0.011236159563712976 0.47703368454071177 0.37117888351816447 0.1405512723774108 0.014591224095835085 0.5470441656568041 0.3351898819821292 0.10317472826523161 0.008640798743563282 0.4747528031706314 0.37552620940524367 0.14108018868056174 </TABLE>
    </DEFINITION>
    <DEFINITION>
      <FOR>CRC</FOR>
      <GIVEN>Age</GIVEN>
      <GIVEN>Alcohol</GIVEN>
      <GIVEN>Diabetes</GIVEN>
      <GIVEN>Hyperchol.</GIVEN>
      <GIVEN>Hypertension</GIVEN>
      <GIVEN>Sex</GIVEN>
      <GIVEN>Smoking</GIVEN>
      <TABLE>0.9998722516397498 0.00012774836025020872 0.9999610589428349 3.894105716511067e-05 0.9997894241199544 0.0002105758800455028 0.9994771807208735 0.0005228192791264141 0.9995654965852699 0.0004345034147300594 0.9993493011413491 0.0006506988586509116 0.9993793496683101 0.0006206503316898567 0.9995075206840468 0.0004924793159531732 0.9992695048400305 0.0007304951599694359 0.9991731259625825 0.0008268740374176278 0.9991989294077162 0.0008010705922837756 0.9991736475575292 0.0008263524424707304 0.9998556880274123 0.00014431197258767042 0.9999365479402692 6.345205973083794e-05 0.9997736426093408 0.00022635739065925926 0.999292985048492 0.0007070149515081319 0.9994732360317278 0.0005267639682722681 0.9993095773484583 0.000690422651541796 0.9994789550652378 0.0005210449347622486 0.9996258059196016 0.00037419408039849326 0.9992898631364886 0.0007101368635114102 0.9991731259625825 0.0008268740374176278 0.9991736475575292 0.0008263524424707304 0.9991984237707126 0.0008015762292875148 0.9992004437694796 0.0007995562305204868 0.9992474964975132 0.00075250350248684 0.9991741684948433 0.0008258315051567188 0.9991731259625825 0.0008268740374176278 0.9991731259625825 0.0008268740374176278 0.9991731259625825 0.0008268740374176278 0.9991731259625825 0.0008268740374176278 0.9991989294077162 0.0008010705922837756 0.9991731259625825 0.0008268740374176278 0.9991731259625825 0.0008268740374176278 0.9991731259625825 0.0008268740374176278 0.9991731259625825 0.0008268740374176278 0.9991984237707126 0.0008015762292875148 0.999269962740162 0.0007300372598379667 0.9991994347257623 0.0008005652742375732 0.9991736475575292 0.0008263524424707304 0.9991736475575294 0.0008263524424707303 0.9991731259625825 0.0008268740374176278 0.9991989294077162 0.0008010705922837756 0.9991984237707126 0.0008015762292875148 0.9991984237707126 0.0008015762292875148 0.9991731259625825 0.0008268740374176278 0.9991731259625825 0.0008268740374176278 0.9991731259625825 0.0008268740374176278 0.9998285508587955 0.00017144914120445482 0.9999999967775283 3.2224716805001907e-09 0.9999997996701059 2.0032989414442323e-07 0.9998131756638761 0.00018682433612391528 0.999844224031605 0.0001557759683950154 0.9998109102403078 0.0001890897596922451 0.9999940984762334 5.901523766460365e-06 0.9999819516030146 1.8048396985384006e-05 0.9999309595726183 6.904042738164264e-05 0.9998674575001256 0.00013254249987444444 0.9998323890034247 0.0001676109965753222 0.9995805842053404 0.0004194157946596528 0.9998450946529783 0.0001549053470216649 0.9999999625881903 3.741180953696559e-08 0.9999989888319881 1.0111680119629033e-06 0.9999829813126899 1.7018687310173733e-05 0.999429244448559 0.0005707555514409627 0.9999943363906786 5.663609321373606e-06 0.9999892562805592 1.0743719440788563e-05 0.9999800825466062 1.9917453393823888e-05 0.999927056729995 7.294327000496872e-05 0.9998193889981678 0.00018061100183216282 0.9997222072409252 0.00027779275907480547 0.9994987453942138 0.0005012546057861658 0.9998417485003758 0.0001582514996241941 0.9998224732626748 0.00017752673732517133 0.9995366732770982 0.0004633267229018617 0.9997361211365922 0.0002638788634078214 0.9996154609993839 0.00038453900061611825 0.9995156571592871 0.00048434284071282446 0.9994059211310712 0.0005940788689287554 0.999332483064292 0.0006675169357079895 0.9992695039702049 0.0007304960297950631 0.999271801589071 0.0007281984109289981 0.9991984237707126 0.0008015762292875148 0.999174689760559 0.0008253102394409703 0.9997949263258264 0.00020507367417355976 0.9997765145721343 0.00022348542786559313 0.9995324957557734 0.0004675042442266658 0.9996899581242203 0.00031004187577964146 0.9995689650750519 0.0004310349249481282 0.9993965523819838 0.0006034476180162147 0.9994445836636555 0.0005554163363445396 0.9995234927852142 0.00047650721478579027 0.9993274243678024 0.0006725756321976009 0.9992465471339906 0.000753452866009356 0.9991741688234522 0.0008258311765476944 0.9991984237707126 0.0008015762292875148 0.9994565856204639 0.000543414379536021 0.9999867033055408 1.329669445914068e-05 0.9999399516308405 6.00483691594624e-05 0.999670211903939 0.0003297880960610566 0.999711304481085 0.00028869551891495587 0.9995668595126996 0.00043314048730041724 0.9997174872975214 0.00028251270247856296 0.9997951529900926 0.00020484700990737513 0.9996624112133402 0.0003375887866598059 0.9992236905347439 0.0007763094652560978 0.9992024564603111 0.0007975435396888754 0.9991994344072069 0.0008005655927929645 0.9999830394378303 1.6960562169665305e-05 0.9999948599548453 5.14004515470871e-06 0.9999755669955012 2.4433004498861412e-05 0.9996201344154625 0.00037986558453762713 0.9997089267604473 0.0002910732395527258 0.9995899234553215 0.0004100765446784295 0.9998764863978871 0.00012351360211293116 0.999942155076204 5.784492379608295e-05 0.9998549371345818 0.0001450628654180573 0.9992029592363277 0.000797040763672227 0.9992708837572005 0.0007291162427994545 0.9991746887757674 0.0008253112242326493 0.9993134762652617 0.0006865237347383073 0.9993867054795733 0.0006132945204266911 0.9992699641889627 0.000730035811037317 0.9991736475575294 0.0008263524424707303 0.9992446433101921 0.0007553566898078737 0.9991736475575292 0.0008263524424707303 0.9991762492903445 0.0008237507096554128 0.9992952057425407 0.0007047942574591899 0.9992479708800323 0.0007520291199676839 0.9991731259625825 0.0008268740374176278 0.9991731259625825 0.0008268740374176278 0.9991731259625825 0.0008268740374176278 0.9993345715538097 0.0006654284461903125 0.9995102842675303 0.000489715732469776 0.999398439946132 0.0006015600538680698 0.9991731259625825 0.0008268740374176278 0.9991736475575292 0.0008263524424707304 0.9991989294077163 0.0008010705922837757 0.9995003740592412 0.0004996259407587413 0.9994732323035881 0.0005267676964119026 0.9993812976299288 0.0006187023700712381 0.9991731259625825 0.0008268740374176278 0.9991736475575292 0.0008263524424707303 0.9991731259625825 0.0008268740374176278 0.9997625201411136 0.000237479858886408 0.9997578834865758 0.00024211651342422117 0.9995770371429193 0.00042296285708067204 0.9997653403291 0.0002346596708999761 0.9998050549495152 0.0001949450504847121 0.9998309846647149 0.0001690153352850644 0.9994149367525228 0.0005850632474772258 0.9999938732280953 6.126771904686934e-06 0.9999867687878432 1.3231212156762308e-05 0.9999748602872984 2.513971270162505e-05 0.9999336518095356 6.634819046440321e-05 0.9998545520643628 0.0001454479356371878 0.9997581470345018 0.00024185296549808456 0.9998234053077847 0.00017659469221535562 0.9994529882721515 0.0005470117278484997 0.9997969689171231 0.00020303108287684655 0.9995747530356079 0.00042524696439202685 0.9996499245078728 0.00035007549212718545 0.9999722348876449 2.7765112355156723e-05 0.9999986712910047 1.3287089953378205e-06 0.9993520715216393 0.0006479284783607715 0.9999693104207503 3.06895792497042e-05 0.9999261943996525 7.380560034752964e-05 0.9998767509126391 0.0001232490873609193 0.9999158498837799 8.415011622016049e-05 0.9998998014248169 0.00010019857518310422 0.9998142328167403 0.00018576718325968533 0.9998467182444157 0.00015328175558430003 0.9997254240997343 0.0002745759002656765 0.9996266852894092 0.00037331471059074247 0.9997475906806536 0.00025240931934652686 0.9997079804641334 0.00029201953586648934 0.9996405926847434 0.0003594073152566885 0.9994905708942668 0.0005094291057331731 0.9993299608777331 0.000670039122266976 0.9992474964975131 0.00075250350248684 0.9999502445957538 4.97554042463278e-05 0.9979983435046065 0.0020016564953935314 0.9998848402130774 0.00011515978692249239 0.9998186481479029 0.00018135185209709295 0.9997146435721753 0.0002853564278246758 0.9995800664975434 0.0004199335024566505 0.9998974738594048 0.00010252614059532001 0.9993683199903428 0.0006316800096571664 0.9998147313006649 0.00018526869933516905 0.999395824106822 0.0006041758931779975 0.9994946543442557 0.0005053456557443843 0.9992309896172051 0.0007690103827947881 0.9994726386372396 0.0005273613627604675 0.9992368492448225 0.0007631507551774982 0.9976908597688596 0.002309140231140394 0.9996151863819519 0.0003848136180480258 0.9996732784095516 0.0003267215904484488 0.9990944749699766 0.0009055250300234349 0.9998391343206574 0.00016086567934250675 0.9989798408154312 0.0010201591845686864 0.9998596894583857 0.00014031054161442601 0.9993464330686732 0.0006535669313268301 0.9993480741345321 0.0006519258654678696 0.9992059642024177 0.0007940357975823353 0.9988984122208573 0.0011015877791426543 0.9989313239957587 0.0010686760042413462 0.9987796407629316 0.0012203592370683535 0.9998151738233986 0.00018482617660140857 0.9998487048572362 0.000151295142763751 0.9997821367077148 0.00021786329228525025 0.9986743477540565 0.0013256522459434846 0.998670934279891 0.0013290657201089622 0.9963325082568494 0.003667491743150585 0.9994678804597661 0.0005321195402338059 0.9995207745664092 0.0004792254335908415 0.9994044359620717 0.0005955640379283428 0.9976654193047318 0.0023345806952682633 0.9996248419211332 0.00037515807886672126 0.9994575008031416 0.0005424991968584623 0.9991984237707126 0.0008015762292875148 0.9991999394066978 0.0008000605933021535 0.9991994347257624 0.0008005652742375733 0.9993724131256134 0.0006275868743866723 0.9995595553995553 0.00044044460044470894 0.9988477209760577 0.001152279023942346 0.9991736475575292 0.0008263524424707304 0.9991989294077162 0.0008010705922837756 0.9991736475575294 0.0008263524424707303 0.999631575034583 0.0003684249654170844 0.9998228387379134 0.00017716126208655402 0.9997120289519221 0.0002879710480778866 0.9991989294077162 0.0008010705922837756 0.999288520393706 0.0007114796062939613 0.9992695045497234 0.0007304954502766436 0.9997499401214939 0.00025005987850618003 0.9998655148138758 0.00013448518612422652 0.9997916811321498 0.00020831886785021786 0.999174689760559 0.0008253102394409703 0.9992232005270021 0.0007767994729979466 0.9992009481322611 0.0007990518677388201 0.9991491843882804 0.0008508156117196334 0.9994033074006509 0.0005966925993492092 0.9989244565377874 0.0010755434622125928 0.9988741090394868 0.0011258909605130732 0.9992500167011309 0.0007499832988690953 0.9985191474938777 0.0014808525061223053 0.9997466934140298 0.00025330658597028983 0.9999945080192071 5.491980792924228e-06 0.9996921791493364 0.00030782085066355266 0.9992578753955046 0.0007421246044954502 0.9999464745954766 5.352540452344369e-05 0.9999037717782103 9.622822178965163e-05 0.9991636565853165 0.0008363434146835201 0.9991888659360164 0.0008111340639836643 0.9983469187569316 0.0016530812430684662 0.9990265634394463 0.0009734365605537922 0.9999194960910346 8.050390896537772e-05 0.9989500490975141 0.0010499509024858645 0.999267352059063 0.0007326479409369901 0.999434674042674 0.000565325957326017 0.9988249398925408 0.0011750601074591621 0.9999949637029469 5.03629705309503e-06 0.9996780764495292 0.0003219235504707828 0.9966955263678534 0.003304473632146571 0.9972005884867594 0.00279941151324054 0.9999207376166788 7.926238332122566e-05 0.9999051312016876 9.486879831247839e-05 0.999718530410824 0.0002814695891759863 0.9995976405575268 0.0004023594424732015 0.9996058824635029 0.00039411753649712004 0.992697659522935 0.007302340477065002 0.9998926927576468 0.000107307242353109 0.9983782396863337 0.001621760313666384 0.9995385515961174 0.0004614484038826031 0.9993805821483017 0.0006194178516983148 0.9994300240809988 0.0005699759190011678 0.9988564533339777 0.0011435466660223265 0.9999790257385528 2.0974261447103617e-05 0.9999764418281967 2.355817180332261e-05 0.9998664552417352 0.00013354475826469494 0.9998096575632262 0.00019034243677380452 0.9996795976691429 0.00032040233085704 0.9991079924555749 0.0008920075444250512 0.9981967831471881 0.0018032168528119448 0.9973686467319028 0.0026313532680972227 0.9997974970392403 0.00020250296075972885 0.9997233066035089 0.0002766933964910964 0.9995278751019866 0.00047212489801340147 0.9998651569770057 0.0001348430229942326 0.9999062112081103 9.378879188967083e-05 0.9998716264322367 0.00012837356776333384 0.9994658550564001 0.0005341449436000053 0.9993739810824722 0.0006260189175278315 0.9992596967931244 0.0007403032068755954 0.9911510822590607 0.008848917740939361 0.9992827442945807 0.0007172557054192059 0.9917036004217729 0.00829639957822723 0.9993501194831451 0.0006498805168548839 0.9992271079501286 0.0007728920498715058 0.999201954634155 0.0007980453658450431 0.999047816311848 0.0009521836881519396 0.99908538419334 0.0009146158066599035 0.9979353350874514 0.0020646649125486815 0.989387620558583 0.010612379441417085 0.9996979496025644 0.00030205039743558303 0.9983273435760518 0.0016726564239482663 0.9995725899284956 0.0004274100715044659 0.9989945897977797 0.0010054102022204097 0.9977737758936097 0.0022262241063902145 0.9824497119662391 0.017550288033760863 0.9994744702026466 0.000525529797353433 0.9987886628078735 0.0012113371921264144 0.9994096122554846 0.0005903877445154365 0.9994316705336429 0.000568329466357128 0.9995234731521179 0.0004765268478820562 0.9991741688234522 0.0008258311765476944 0.9991989294077162 0.0008010705922837756 0.9991731259625825 0.0008268740374176278 0.9995061865007476 0.000493813499252411 0.9994922244104782 0.0005077755895216775 0.9995946464875107 0.0004053535124893168 0.9991736475575292 0.0008263524424707303 0.9991741688234522 0.0008258311765476943 0.9991746894321574 0.0008253105678427068 0.99964540941578 0.00035459058422005125 0.9996702479689683 0.00032975203103174987 0.9905957484166146 0.009404251583385464 0.9992232002179033 0.0007767997820966145 0.9992246683894586 0.0007753316105413185 0.9992251577791992 0.0007748422208008443 0.9997588907278272 0.00024110927217277475 0.9998256056835223 0.00017439431647769203 0.999862643940107 0.00013735605989298924 0.9992474967965667 0.0007525032034333823 0.9991741684948433 0.0008258315051567187 0.9992241796159694 0.0007758203840305775 0.9973382768624939 0.0026617231375060725 0.9983622887174813 0.001637711282518735 0.9975387336314303 0.0024612663685696775 0.9960597476471897 0.0039402523528102714 0.9973239245658929 0.002676075434107025 0.998715263108514 0.001284736891486139 0.9950683461771178 0.004931653822882147 0.9996995719255583 0.00030042807444171635 0.9972566620491645 0.002743337950835443 0.9946168337387841 0.005383166261215964 0.9997172545211487 0.00028274547885134946 0.9996988198436045 0.0003011801563955425 0.9979889938547502 0.0020110061452499307 0.9990034770203463 0.000996522979653712 0.9970772289009359 0.00292277109906415 0.9964085555042782 0.0035914444957218044 0.9999955600214983 4.439978501791366e-06 0.9976959360471205 0.002304063952879493 0.998167702234232 0.0018322977657679249 0.9968303798113096 0.0031696201886904883 0.9973230397614378 0.0026769602385621977 0.9979468910674295 0.0020531089325705096 0.999452971150947 0.0005470288490529224 0.9950827162418877 0.004917283758112331 0.9993132856290676 0.0006867143709323973 0.9998137816600516 0.00018621833994833642 0.9982829394789678 0.0017170605210321262 0.9995385416069384 0.0004614583930616464 0.9993893855439369 0.0006106144560631481 0.999374761043889 0.0006252389561109601 0.9922332595982174 0.007766740401782526 0.9998278192758298 0.00017218072417020036 0.9969158980233082 0.0030841019766917797 0.9995996261075035 0.00040037389249646094 0.9992740830787614 0.0007259169212386026 0.9993245690902066 0.0006754309097934023 0.9940599306387 0.0059400693612999865 0.9994905909582155 0.0005094090417844973 0.9918925040840189 0.008107495915981195 0.9997863720648975 0.00021362793510255887 0.9996057224785113 0.00039427752148876873 0.9996254377719825 0.0003745622280174706 0.9985039283595388 0.0014960716404613084 0.9912690450752126 0.00873095492478731 0.9955407602368532 0.004459239763146809 0.9926656765687292 0.00733432343127078 0.9996432335841297 0.00035676641587038317 0.9995658124470451 0.0004341875529548178 </TABLE>
    </DEFINITION>
    <DEFINITION>
      <FOR>Depression</FOR>
      <GIVEN>Age</GIVEN>
      <GIVEN>SES</GIVEN>
      <GIVEN>Sex</GIVEN>
      <TABLE>0.9978636554938927 0.0021363445061073445 0.994321308601853 0.005678691398146928 0.9988548699500529 0.0011451300499470914 0.9978873849060403 0.002112615093959705 0.9989697808463899 0.0010302191536101042 0.9982667807877581 0.001733219212241852 0.9967060370388008 0.003293962961199284 0.9884628961039902 0.011537103896009886 0.9976126484299576 0.0023873515700424024 0.9949599543560503 0.005040045643949728 0.9978748261967962 0.0021251738032037476 0.9953964901031697 0.004603509896830275 0.9932493095613598 0.00675069043864023 0.9801555747937101 0.019844425206289904 0.9966942076629978 0.0033057923370022864 0.9926545557161899 0.007345444283810199 0.9970275211526869 0.0029724788473130884 0.993538526281124 0.0064614737188759645 0.9930464054349152 0.0069535945650848465 0.9651706130153465 0.034829386984653564 0.9945590626070319 0.00544093739296821 0.9892555498402266 0.010744450159773334 0.9972002679726472 0.002799732027352877 0.993063386973031 0.006936613026968977 </TABLE>
    </DEFINITION>
    <DEFINITION>
      <FOR>Diabetes</FOR>
      <GIVEN>Age</GIVEN>
      <GIVEN>BMI</GIVEN>
      <GIVEN>PA</GIVEN>
      <GIVEN>Sex</GIVEN>
      <TABLE>0.9866506932220422 0.013349306777957707 0.9963302603363187 0.003669739663681396 0.9910621513481687 0.008937848651831377 0.9947869580802903 0.005213041919709835 0.9927822302343733 0.0072177697656266625 0.9947208875700431 0.00527911242995678 0.9931408310324584 0.006859168967541724 0.9959346470234784 0.0040653529765214925 0.9924889226995621 0.007511077300437976 0.9919482981537088 0.008051701846291219 0.993003147065696 0.00699685293430394 0.9920591874670364 0.007940812532963614 0.985940308023398 0.014059691976602019 0.9868037083971452 0.013196291602854923 0.9847716574888881 0.015228342511111924 0.9820241067546966 0.017975893245303243 0.9797326169616853 0.020267383038314612 0.9932828646266271 0.006717135373372817 0.986847564981638 0.013152435018361974 0.992272735541873 0.007727264458126959 0.9895211634920567 0.010478836507943347 0.9931255889095987 0.006874411090401284 0.9900748368955786 0.009925163104421405 0.9936584183635069 0.00634158163649304 0.9846244008827734 0.015375599117226664 0.9870381715284857 0.012961828471514284 0.9867876386561198 0.013212361343880189 0.9863202114192989 0.013679788580701 0.9569985386905221 0.04300146130947796 0.9749670846750884 0.025032915324911687 0.9571733385808571 0.042826661419143035 0.9660257352992573 0.03397426470074279 0.9822568338481135 0.017743166151886536 0.9942631588788257 0.005736841121174403 0.956712991574512 0.04328700842548805 0.992523801624199 0.00747619837580102 0.9717906558206306 0.028209344179369468 0.9891762587745594 0.010823741225440654 0.9757134164700247 0.024286583529975318 0.9908740354027425 0.009125964597257395 0.947443145138804 0.05255685486119591 0.9792819828572421 0.02071801714275781 0.9566700613316368 0.043329938668363197 0.9781565939519485 0.021843406048051486 0.8784373237830541 0.1215626762169459 0.938223299984326 0.06177670001567406 0.8849794713233464 0.11502052867665366 0.9307750220530855 0.06922497794691458 0.9487064049247202 0.05129359507527977 0.9690942256946095 0.03090577430539057 0.9509874228657359 0.04901257713426416 0.98181399695432 0.018186003045680008 0.9226900716793821 0.07730992832061799 0.9761647361930913 0.02383526380690863 0.9253316452251017 0.07466835477489824 0.9787792658690357 0.021220734130964227 0.8747662051741867 0.12523379482581343 0.9490961950174731 0.050903804982526946 0.8859990530624144 0.11400094693758549 0.9531978298971482 0.04680217010285189 0.7861843341286349 0.2138156658713652 0.8754260331725762 0.12457396682742386 0.7844732296680371 0.2155267703319628 0.892336478216218 0.10766352178378213 </TABLE>
    </DEFINITION>
    <DEFINITION>
      <FOR>Hyperchol.</FOR>
      <GIVEN>Age</GIVEN>
      <GIVEN>Alcohol</GIVEN>
      <GIVEN>BMI</GIVEN>
      <GIVEN>PA</GIVEN>
      <GIVEN>Sex</GIVEN>
      <GIVEN>Smoking</GIVEN>
      <TABLE>0.4661451857895288 0.5338548142104711 0.49871428344195434 0.5012857165580455 0.44894908155026236 0.5510509184497376 0.44894908155026236 0.5510509184497376 0.43638098495776256 0.5636190150422374 0.46547103311550037 0.5345289668844997 0.46547103311550037 0.5345289668844997 0.45040129605255685 0.5495987039474431 0.46547103311550037 0.5345289668844997 0.4661451857895289 0.5338548142104711 0.4494244201517402 0.5505755798482598 0.44929646720629396 0.5507035327937061 0.5245120136113655 0.4754879863886345 0.6563591654104738 0.3436408345895262 0.47612929303168255 0.5238707069683174 0.4874932116002621 0.5125067883997378 0.43115068877955975 0.5688493112204402 0.4292302137745321 0.5707697862254678 0.5423604754110619 0.4576395245889381 0.5836787421604398 0.41632125783956014 0.5298073627335768 0.4701926372664232 0.5366119611304451 0.463388038869555 0.5373762166506454 0.46262378334935456 0.48525254304283766 0.5147474569571623 0.4674115847940393 0.5325884152059607 0.47094869839580666 0.5290513016041932 0.49011259575375166 0.5098874042462483 0.44901366637786544 0.5509863336221346 0.48544080793477246 0.5145591920652276 0.46547103311550037 0.5345289668844997 0.46522442763760996 0.53477557236239 0.5326502493956324 0.4673497506043675 0.47522716438553153 0.5247728356144684 0.48232010720322926 0.5176798927967707 0.5225419405848123 0.47745805941518776 0.4486662808600631 0.5513337191399369 0.44791594393723716 0.5520840560627628 0.4863440668576463 0.5136559331423537 0.4377713571644729 0.5622286428355271 0.4483182781590632 0.5516817218409367 0.4493609707939625 0.5506390292060375 0.4486012573534981 0.5513987426465019 0.4257102505638658 0.5742897494361342 0.42370247703947933 0.5762975229605207 0.4092337935472107 0.5907662064527893 0.46517741240930616 0.5348225875906939 0.44894908155026236 0.5510509184497376 0.4352330023545596 0.5647669976454404 0.6435487136469292 0.35645128635307083 0.7362916792759391 0.2637083207240609 0.4952309011020363 0.5047690988979636 0.7433622687097703 0.2566377312902297 0.7708462498225404 0.2291537501774596 0.7216972828304753 0.2783027171695247 0.7233456159635939 0.276654384036406 0.7099171811242704 0.29008281887572973 0.5349274338416783 0.46507256615832165 0.7129449944864535 0.2870550055135465 0.7222466682495986 0.2777533317504014 0.6030845357047747 0.39691546429522534 0.7485971170431591 0.2514028829568408 0.7658921517411241 0.2341078482588759 0.6861762610397675 0.3138237389602326 0.7902143048938671 0.20978569510613285 0.8027532421814557 0.1972467578185443 0.7598304259248052 0.24016957407519487 0.7956494560591132 0.2043505439408869 0.796386595075658 0.20361340492434205 0.7426219837727019 0.257378016227298 0.780033381144607 0.21996661885539298 0.7872894774519057 0.21271052254809433 0.7515909462646919 0.24840905373530806 0.6379835197376545 0.3620164802623454 0.6188866899799647 0.3811133100200352 0.5860398396117698 0.41396016038823025 0.7048263046907924 0.2951736953092077 0.7006747560756457 0.29932524392435444 0.6686832920614703 0.3313167079385298 0.7014160866698085 0.2985839133301914 0.6655285140824073 0.33447148591759257 0.6437803931400112 0.3562196068599889 0.7034534864718125 0.2965465135281875 0.702071305938247 0.29792869406175315 0.6552935460465062 0.34470645395349375 0.5538491415912635 0.44615085840873653 0.5346477509391797 0.4653522490608203 0.5177457005767168 0.4822542994232832 0.6819403742807941 0.3180596257192057 0.6772316298186559 0.322768370181344 0.6530590797762572 0.34694092022374284 0.5958071055050421 0.4041928944949578 0.5412975876092333 0.4587024123907667 0.5342558783992731 0.46574412160072676 0.6379531696657661 0.36204683033423385 0.6188730997127074 0.3811269002872926 0.5556210932134685 0.44437890678653147 0.4348765205472746 0.5651234794527255 0.49861669309408463 0.5013833069059154 0.4352330023545596 0.5647669976454405 0.44894908155026236 0.5510509184497376 0.45681988568386556 0.5431801143161343 0.4492966863383438 0.5507033136616563 0.46580821580050524 0.5341917841994948 0.4825193894014522 0.5174806105985479 0.44894908155026236 0.5510509184497376 0.4816663802446444 0.5183336197553556 0.46593772450496895 0.534062275495031 0.4395708133083724 0.5604291866916276 0.4545252911613523 0.5454747088386477 0.4388655160407886 0.5611344839592114 0.3770953081872114 0.6229046918127886 0.5124890473097395 0.48751095269026046 0.4965782115989052 0.5034217884010947 0.44239021251111005 0.5576097874888899 0.4338614850014166 0.5661385149985834 0.43455363682189957 0.5654463631781004 0.4164781085382134 0.5835218914617867 0.515501774427019 0.48449822557298083 0.49658314754957866 0.5034168524504213 0.531147626124893 0.4688523738751071 0.3660317147976732 0.6339682852023268 0.3179323659341288 0.6820676340658711 0.31804762869083075 0.6819523713091693 0.51221140905487 0.48778859094513016 0.4875063418516031 0.5124936581483969 0.4375612970885664 0.5624387029114337 0.35493969286443955 0.6450603071355604 0.34717022587758306 0.6528297741224169 0.3615717976768224 0.6384282023231775 0.40922352900428355 0.5907764709957164 0.3719082874315826 0.6280917125684174 0.4162648811871797 0.5837351188128204 0.29285508123694226 0.7071449187630577 0.3086466101793174 0.6913533898206826 0.2842978755223653 0.7157021244776347 0.4692057844780519 0.530794215521948 0.4416797682538975 0.5583202317461026 0.43460219896336055 0.5653978010366395 0.26116407774032047 0.7388359222596795 0.2782485431450442 0.7217514568549558 0.3166140403408785 0.6833859596591215 0.4219951828666729 0.578004817133327 0.44816493758379333 0.5518350624162067 0.43495862897637 0.5650413710236301 0.6352385437085903 0.36476145629140966 0.599297107767776 0.40070289223222405 0.4472213070131702 0.5527786929868298 0.6485684569132238 0.3514315430867761 0.6480153469925223 0.3519846530074777 0.5526615379718562 0.44733846202814376 0.5732756435620991 0.4267243564379009 0.5494718515334971 0.4505281484665029 0.4831675240259476 0.5168324759740525 0.6590642490125707 0.34093575098742934 0.6226534194241197 0.3773465805758803 0.5570795155068925 0.44292048449310756 0.6045807295766624 0.3954192704233376 0.5781691688968587 0.42183083110314135 0.5274716154802657 0.4725283845197344 0.7402968808478256 0.2597031191521743 0.7205838347741721 0.27941616522582796 0.7023533507567938 0.29764664924320616 0.6492035340614629 0.35079646593853714 0.600270155652757 0.399729844347243 0.588626278919536 0.411373721080464 0.7346148160796548 0.2653851839203452 0.7156833461565668 0.28431665384343313 0.6965095370010163 0.3034904629989838 0.5124196900674052 0.4875803099325949 0.45427519010085016 0.54572480989915 0.45417183623871943 0.5458281637612805 0.6445090904608054 0.3554909095391947 0.615591667568262 0.38440833243173805 0.6141443474365749 0.38585565256342513 0.5445704834006059 0.4554295165993941 0.48598424184684236 0.5140157581531576 0.4922189477877348 0.5077810522122652 0.6332966508199174 0.36670334918008257 0.6017463789305941 0.39825362106940587 0.6017010378590634 0.39829896214093674 0.43986379113872115 0.5601362088612788 0.39787200612549184 0.6021279938745082 0.40064449694339754 0.5993555030566025 0.6077239833761326 0.3922760166238673 0.5484836577156355 0.4515163422843645 0.5500297556117001 0.4499702443882999 0.46223409822121914 0.5377659017787808 0.38973659480112277 0.6102634051988773 0.4078816002164953 0.5921183997835047 0.600050679941755 0.399949320058245 0.5271683528446774 0.47283164715532255 0.5704291784457415 0.42957082155425846 0.4486012573534981 0.5513987426465019 0.4255222898268091 0.5744777101731909 0.4346842555981804 0.5653157444018196 0.4648839769200492 0.5351160230799509 0.42216432774874063 0.5778356722512593 0.43531505898937944 0.5646849410106205 0.4486012573534981 0.5513987426465019 0.426719674032717 0.573280325967283 0.44894908155026236 0.5510509184497376 0.43429845503836134 0.5657015449616387 0.4442975820267308 0.5557024179732692 0.44810019986099714 0.5518998001390029 0.3404364122468196 0.6595635877531805 0.33473793621813674 0.6652620637818631 0.28667920613118797 0.7133207938688121 0.40859406272418947 0.5914059372758106 0.32759545342461305 0.672404546575387 0.43255391812139865 0.5674460818786013 0.3051752869815081 0.6948247130184919 0.330553360186375 0.6694466398136251 0.2308119992339085 0.7691880007660915 0.31445993167160097 0.685540068328399 0.34235908036896634 0.6576409196310335 0.38790838252781457 0.6120916174721854 0.2797281491643364 0.7202718508356635 0.24538000700954862 0.7546199929904515 0.22837816308016778 0.7716218369198322 0.40488301245647684 0.595116987543523 0.3784759743121306 0.6215240256878694 0.39308007379678134 0.6069199262032186 0.2579843647000729 0.7420156352999272 0.24034163061733343 0.7596583693826666 0.22727304719919614 0.7727269528008038 0.36852692595806436 0.6314730740419358 0.346542279235597 0.653457720764403 0.405535715293713 0.594464284706287 0.23447485899513318 0.7655251410048668 0.2356989302554844 0.7643010697445155 0.2387473471736265 0.7612526528263734 0.3571718523144604 0.6428281476855396 0.3845418435765378 0.6154581564234622 0.40706179633874745 0.5929382036612526 0.2646798130879737 0.7353201869120262 0.23454980451606303 0.7654501954839369 0.22678397240107773 0.7732160275989223 0.4356821876878242 0.5643178123121757 0.42593335305215835 0.5740666469478417 0.4294310962642776 0.5705689037357224 0.45759446257301023 0.5424055374269897 0.4624849510181431 0.5375150489818569 0.49600401711014214 0.5039959828898578 0.47569262818920105 0.5243073718107989 0.4397128197751523 0.5602871802248477 0.4647089436338239 0.535291056366176 0.42695122507072614 0.5730487749292738 0.4598877557277343 0.5401122442722657 0.48241139609100264 0.5175886039089974 0.4464502631858305 0.5535497368141695 0.512096231522942 0.487903768477058 0.4460919783170155 0.5539080216829845 0.4357983925467369 0.5642016074532631 0.4261985920153425 0.5738014079846574 0.36262231922087457 0.6373776807791254 0.515705797313638 0.4842942026863621 0.47425458324208974 0.5257454167579103 0.4643778004510587 0.5356221995489414 0.4699535796470649 0.530046420352935 0.4280703086736919 0.5719296913263081 0.40811061070334625 0.5918893892966538 0.517335828226494 0.482664171773506 0.4545992030053552 0.5454007969946447 0.46898524109698586 0.5310147589030142 0.39545040196090203 0.604549598039098 0.3304711556504582 0.6695288443495417 0.3398884164480115 0.6601115835519885 0.4299086643157056 0.5700913356842944 0.3565540694110325 0.6434459305889676 0.38112021533035817 0.6188797846696419 0.39461289718100784 0.6053871028189921 0.3311853295569843 0.6688146704430157 0.3648802907189265 0.6351197092810734 0.43199741351001936 0.5680025864899807 0.358107096860696 0.641892903139304 0.36567331126226116 0.6343266887377389 0.3612380460616671 0.6387619539383328 0.3129688865121489 0.6870311134878511 0.3266623972264085 0.6733376027735913 0.4189403318260419 0.5810596681739582 0.32598832279372675 0.6740116772062733 0.345654774509898 0.6543452254901019 0.3478472357914582 0.6521527642085417 0.3085390405940478 0.6914609594059522 0.3271506567091254 0.6728493432908745 0.4029347890410186 0.5970652109589814 0.35032775722906356 0.6496722427709364 0.377649883307146 0.622350116692854 0.4349584559007125 0.5650415440992874 0.4874419693911466 0.5125580306088534 0.43523300235455953 0.5647669976454404 0.4348765205472746 0.5651234794527255 0.42153352460838817 0.5784664753916119 0.4486012573534981 0.5513987426465019 0.44894908155026236 0.5510509184497376 0.47000091773387687 0.529999082266123 0.4486012573534981 0.5513987426465019 0.435945067056435 0.564054932943565 0.4490132684649471 0.550986731535053 0.4335071592430135 0.5664928407569866 0.2834964631537964 0.7165035368462037 0.2782184495049543 0.7217815504950457 0.2508388196503905 0.7491611803496094 0.3922561987000046 0.6077438012999953 0.35483352466014106 0.6451664753398589 0.3463280226411715 0.6536719773588284 0.2793051546505508 0.7206948453494492 0.27962089620437347 0.7203791037956264 0.25159160558960114 0.7484083944103989 0.3396330514098369 0.6603669485901631 0.36160081119755694 0.6383991888024432 0.355479797420733 0.6445202025792671 0.2480917116150945 0.7519082883849055 0.23609385846355382 0.7639061415364462 0.23558073095267024 0.7644192690473298 0.3298483122549996 0.6701516877450003 0.3326356073242832 0.6673643926757168 0.38276303719127336 0.6172369628087266 0.2281212181382817 0.7718787818617183 0.24274714477467482 0.7572528552253251 0.23650973696000255 0.7634902630399975 0.38526918234009366 0.6147308176599062 0.3161386152334384 0.6838613847665616 0.3948245237754257 0.6051754762245743 0.2565038521326095 0.7434961478673904 0.22902896226966393 0.770971037730336 0.21207757736306926 0.7879224226369308 0.4040368866765321 0.5959631133234679 0.406667570890136 0.593332429109864 0.43709412143097526 0.5629058785690249 0.27523543418747887 0.7247645658125212 0.23594302631525826 0.7640569736847418 0.24073421137525663 0.7592657886247434 0.35496267836182793 0.6450373216381721 0.433233873846209 0.5667661261537911 0.40819938937165434 0.5918006106283457 0.46505941368660864 0.5349405863133913 0.43973596600632386 0.5602640339936761 0.45230515826354467 0.5476948417364553 0.4014835130348549 0.598516486965145 0.3594730794352847 0.6405269205647154 0.44881481782141713 0.5511851821785829 0.4667864569865163 0.5332135430134837 0.4602140456299 0.5397859543701 0.43484919829113605 0.565150801708864 0.33606569529997776 0.6639343047000223 0.4506077744699657 0.5493922255300342 0.40600737820287675 0.5939926217971232 0.36260992657056124 0.6373900734294388 0.32306157112866163 0.6769384288713385 0.3248836621442351 0.675116337855765 0.2514496133887936 0.7485503866112063 0.2540899430338667 0.7459100569661332 0.22684112237724924 0.7731588776227507 0.3444649531434502 0.6555350468565497 0.31370671184690896 0.6862932881530911 0.3196751854700634 0.6803248145299368 0.2552304911736128 0.7447695088263873 0.23738728070434667 0.7626127192956534 0.20583534318584418 0.7941646568141559 0.3431767559960353 0.6568232440039646 0.29767239831978204 0.702327601680218 0.31333923374292305 0.6866607662570771 0.22827018477963099 0.771729815220369 0.22037584698231363 0.7796241530176865 0.2068941073577599 0.7931058926422401 0.33474958459429893 0.6652504154057012 0.29977304649077213 0.7002269535092279 0.315997666491491 0.6840023335085089 0.2206502307241508 0.7793497692758492 0.20177817654910607 0.7982218234508939 0.19505936400845653 0.8049406359915434 0.3271117543085564 0.6728882456914437 0.26892080061177326 0.7310791993882269 0.31189859673740605 0.688101403262594 0.2600736946239616 0.7399263053760383 0.2585411681391723 0.7414588318608277 0.2196697970026342 0.7803302029973658 0.3330981533049989 0.6669018466950012 0.26404584879713666 0.7359541512028634 0.2951235461431511 0.7048764538568489 0.2501268317155329 0.7498731682844672 0.2270596526361421 0.7729403473638579 0.22911859819077515 0.7708814018092248 </TABLE>
    </DEFINITION>
    <DEFINITION>
      <FOR>Hypertension</FOR>
      <GIVEN>Age</GIVEN>
      <GIVEN>Alcohol</GIVEN>
      <GIVEN>Anxiety</GIVEN>
      <GIVEN>BMI</GIVEN>
      <GIVEN>Diabetes</GIVEN>
      <GIVEN>PA</GIVEN>
      <GIVEN>Smoking</GIVEN>
      <TABLE>0.85107879765588 0.14892120234411999 0.8713456430496265 0.12865435695037347 0.8508907990668122 0.14910920093318775 0.8554085622169318 0.1445914377830682 0.8473436180321652 0.1526563819678349 0.8509847983613461 0.14901520163865387 0.8460878127603706 0.1539121872396294 0.8460878127603706 0.1539121872396294 0.8460878127603706 0.1539121872396294 0.8460878127603706 0.1539121872396294 0.8460878127603706 0.1539121872396294 0.8460878127603706 0.1539121872396294 0.9284705283800171 0.07152947161998287 0.9546696751689642 0.04533032483103578 0.8996086300956057 0.10039136990439437 0.9236027630179583 0.07639723698204164 0.9417178577466853 0.05828214225331471 0.9364216090856471 0.0635783909143529 0.8460878127603706 0.1539121872396294 0.8512665001057865 0.14873349989421342 0.8460878127603706 0.1539121872396294 0.85107879765588 0.14892120234411999 0.86359823426427 0.13640176573573004 0.8508907990668122 0.14910920093318772 0.8795956816436614 0.12040431835633861 0.8865120768799428 0.11348792312005714 0.9157146446582688 0.08428535534173123 0.8742433346034478 0.1257566653965522 0.9151227434349924 0.08487725656500761 0.902181032358999 0.09781896764100095 0.8196847822296676 0.1803152177703324 0.8252387660445937 0.17476123395540624 0.8460878127603706 0.1539121872396294 0.8461849010900282 0.1538150989099718 0.8202021685390508 0.1797978314609491 0.820428859705126 0.17957114029487392 0.882981889295337 0.11701811070466306 0.8233017807340992 0.1766982192659008 0.8439947239377245 0.15600527606227563 0.7962074410661227 0.20379255893387735 0.8360466372664895 0.16395336273351052 0.8073323232705049 0.19266767672949517 0.8507966811072765 0.14920331889272345 0.8513600853425803 0.14863991465741969 0.8461849010900282 0.1538150989099718 0.8461849010900282 0.15381509890997178 0.8460878127603706 0.1539121872396294 0.8460878127603706 0.1539121872396294 0.8460878127603706 0.1539121872396294 0.8460878127603706 0.1539121872396294 0.8460878127603706 0.1539121872396294 0.8460878127603706 0.1539121872396294 0.8460878127603706 0.1539121872396294 0.8460878127603706 0.1539121872396294 0.8460878127603706 0.1539121872396294 0.8460878127603706 0.1539121872396294 0.8460878127603706 0.1539121872396294 0.8460878127603706 0.1539121872396294 0.8460878127603706 0.1539121872396294 0.8460878127603706 0.1539121872396294 0.8462819281760382 0.15371807182396174 0.8403105900474324 0.1596894099525677 0.8507966811072765 0.14920331889272345 0.8509848576564198 0.1490151423435801 0.8404115128558763 0.15958848714412363 0.8460878127603706 0.1539121872396294 0.8460878127603706 0.1539121872396294 0.8460878127603706 0.1539121872396294 0.8460878127603706 0.1539121872396294 0.8460878127603706 0.1539121872396294 0.8460878127603706 0.1539121872396294 0.8460878127603706 0.1539121872396294 0.8508907990668122 0.14910920093318775 0.8639415929585462 0.13605840704145383 0.8460878127603706 0.1539121872396294 0.8461849010900282 0.1538150989099718 0.8518274831189778 0.14817251688102226 0.8507966811072765 0.14920331889272345 0.8460878127603706 0.1539121872396294 0.8460878127603706 0.1539121872396294 0.8460878127603706 0.1539121872396294 0.8460878127603706 0.1539121872396294 0.8460878127603706 0.1539121872396294 0.8460878127603706 0.1539121872396294 0.8464754325433802 0.1535245674566198 0.846668998077153 0.1533310019228469 0.8460878127603706 0.1539121872396294 0.8461849010900282 0.1538150989099718 0.8508907990668122 0.14910920093318772 0.8460878127603706 0.1539121872396294 0.8460878127603706 0.1539121872396294 0.8460878127603706 0.1539121872396294 0.8460878127603706 0.1539121872396294 0.8460878127603706 0.1539121872396294 0.8460878127603706 0.1539121872396294 0.8460878127603706 0.1539121872396294 0.9872254090015444 0.01277459099845562 0.9839266427459438 0.016073357254056238 0.9623656754412466 0.03763432455875336 0.9858801780532455 0.0141198219467546 0.9794586528568455 0.020541347143154403 0.9413430245073243 0.058656975492675685 0.8597542390475409 0.14024576095245914 0.8515473154826446 0.14845268451735527 0.8507966811072765 0.14920331889272345 0.8557728800610093 0.14422711993899082 0.8514538479048137 0.14854615209518623 0.8462818670096073 0.15371813299039266 0.9824700600823618 0.017529939917638238 0.9840509525442952 0.015949047455704825 0.9825547304531456 0.017445269546854346 0.9791700346755184 0.020829965324481604 0.9795877458568236 0.02041225414317632 0.9824370991461034 0.0175629008538965 0.915887078404669 0.08411292159533104 0.9197985532251848 0.08020144677481514 0.8600620083972457 0.13993799160275436 0.9392704628074469 0.060729537192553154 0.9159365852227929 0.08406341477720708 0.9068716567536289 0.09312834324637105 0.9499334505427849 0.05006654945721506 0.9471017714108152 0.052898228589184755 0.9480512602187375 0.051948739781262375 0.9483621507457799 0.05163784925422007 0.9570605202216296 0.04293947977837039 0.9495828375935952 0.05041716240640491 0.8722425344490093 0.12775746555099057 0.9025532371629499 0.09744676283705009 0.8830192662468559 0.11698073375314408 0.896879130443852 0.10312086955614806 0.9210919036400644 0.07890809635993548 0.8945728455974387 0.10542715440256137 0.8546756687977205 0.14532433120227958 0.876049434787304 0.12395056521269587 0.8705040559166616 0.1294959440833385 0.8596829677204227 0.14031703227957731 0.873754074413407 0.1262459255865929 0.8621400247700699 0.13785997522993 0.7968635067488975 0.2031364932511025 0.7547779783897821 0.24522202161021792 0.7681886617833212 0.2318113382166787 0.804541414837678 0.19545858516232195 0.7912753654015361 0.20872463459846397 0.8003364696217247 0.1996635303782754 0.8784997436996032 0.12150025630039692 0.9012082822061602 0.09879171779383976 0.8744138110455345 0.1255861889544655 0.8795628695800459 0.12043713041995406 0.890521698784681 0.10947830121531907 0.8551438327053341 0.1448561672946658 0.8460878127603706 0.1539121872396294 0.8460878127603706 0.1539121872396294 0.8460878127603706 0.1539121872396294 0.8460878127603706 0.1539121872396294 0.8460878127603706 0.1539121872396294 0.8460878127603706 0.1539121872396294 0.9665663185142548 0.03343368148574531 0.9592836687752667 0.04071633122473336 0.9394998235904987 0.06050017640950129 0.959771949061714 0.04022805093828596 0.9579264486611517 0.04207355133884821 0.942174906051645 0.057825093948355 0.8464756765930231 0.1535243234069769 0.8264176730664323 0.17358232693356765 0.8462819281760382 0.15371807182396177 0.851360262556233 0.14863973744376696 0.8356287774962278 0.16437122250377223 0.8464756765930231 0.1535243234069769 0.9177880148170409 0.08221198518295922 0.9285212205665693 0.07147877943343077 0.934883463819877 0.06511653618012307 0.9152171166497334 0.0847828833502666 0.9081609750296118 0.09183902497038826 0.9132801485915282 0.08671985140847185 0.8499127215212291 0.1500872784787709 0.8554085622169318 0.1445914377830682 0.8460878127603706 0.1539121872396294 0.8306858413469183 0.1693141586530817 0.8463788329291865 0.15362116707081355 0.8507966811072765 0.14920331889272345 0.8264433979621287 0.17355660203787127 0.8918027622161343 0.10819723778386561 0.8759292033036503 0.12407079669634964 0.8365328071751494 0.16346719282485053 0.8142417092968394 0.18575829070316066 0.8497714247231605 0.15022857527683953 0.8508907990668122 0.14910920093318772 0.8504487895888244 0.1495512104111755 0.8460878127603706 0.1539121872396294 0.8461849010900282 0.1538150989099718 0.8507966811072765 0.14920331889272345 0.8202021685390508 0.1797978314609491 0.8508907990668122 0.14910920093318772 0.8865754355238991 0.11342456447610094 0.8510788569135502 0.14892114308644977 0.8589463889714724 0.14105361102852754 0.8679398598206273 0.13206014017937281 0.8601955185326683 0.13980448146733168 0.8460878127603706 0.1539121872396294 0.8461849010900282 0.15381509890997178 0.8460878127603706 0.1539121872396294 0.8460878127603706 0.1539121872396294 0.8461849010900282 0.1538150989099718 0.8460878127603706 0.1539121872396294 0.9119658695965788 0.08803413040342126 0.9238716988460243 0.07612830115397579 0.923988243041088 0.07601175695891206 0.9226352945050456 0.07736470549495449 0.9151650187785436 0.08483498122145633 0.9075957618028971 0.09240423819710285 0.8256798248474944 0.17432017515250564 0.8488334265376258 0.1511665734623741 0.7961108113922901 0.20388918860771 0.8512665592141725 0.14873344078582748 0.811094404697705 0.18890559530229492 0.8121158503338418 0.18788414966615816 0.8558452517383458 0.14415474826165417 0.8255835834252221 0.17441641657477802 0.8476776475016671 0.1523223524983329 0.8695665915737459 0.13043340842625412 0.8613177579230352 0.13868224207696478 0.8783923651377425 0.12160763486225741 0.789980887505361 0.21001911249463895 0.761370212592917 0.23862978740708293 0.8103117645776095 0.18968823542239055 0.7827804157522837 0.21721958424771634 0.8310140309977233 0.16898596900227664 0.8536198096547251 0.14638019034527486 0.657387581723844 0.342612418276156 0.7038998749415101 0.2961001250584899 0.6831885319134143 0.3168114680865857 0.7228689636343021 0.27713103636569786 0.6814717348822321 0.31852826511776783 0.7277635707602501 0.2722364292397499 0.7268478635659469 0.27315213643405306 0.7540531361660417 0.24594686383395825 0.7976280382047214 0.20237196179527867 0.7104142192458558 0.2895857807541442 0.7743251609982986 0.22567483900170138 0.7680202482742597 0.23197975172574026 0.8460878127603706 0.1539121872396294 0.8460878127603706 0.1539121872396294 0.8460878127603706 0.1539121872396294 0.8460878127603706 0.1539121872396294 0.8460878127603706 0.1539121872396294 0.8460878127603706 0.1539121872396294 0.8460878127603706 0.1539121872396294 0.8460878127603706 0.1539121872396294 0.8460878127603706 0.1539121872396294 0.8460878127603706 0.1539121872396294 0.8460878127603706 0.1539121872396294 0.8460878127603706 0.1539121872396294 0.860195185802051 0.13980481419794905 0.8293390083212591 0.17066099167874102 0.8306870928942183 0.16931290710578173 0.8285640124613165 0.17143598753868347 0.8709074150514592 0.12909258494854078 0.8788808897404712 0.12111911025952872 0.8460878127603706 0.1539121872396294 0.8460878127603706 0.1539121872396294 0.8460878127603706 0.1539121872396294 0.8460878127603706 0.1539121872396294 0.8460878127603706 0.1539121872396294 0.8460878127603706 0.1539121872396294 0.8710209193635823 0.12897908063641772 0.8964393310294373 0.10356066897056261 0.7824598486326783 0.21754015136732174 0.8710812882853931 0.1289187117146069 0.8423420403437649 0.15765795965623508 0.8389060953022707 0.16109390469772936 0.8460878127603706 0.1539121872396294 0.8508907990668122 0.14910920093318772 0.8460878127603706 0.1539121872396294 0.8455540976988292 0.1544459023011708 0.8456511247848392 0.1543488752151608 0.8460878127603706 0.1539121872396294 0.848591221239911 0.15140877876008896 0.8756125166098921 0.12438748339010779 0.8252707722475785 0.1747292277524215 0.8502599956756132 0.1497400043243868 0.8306857743098902 0.16931422569010976 0.8508907990668122 0.14910920093318777 0.8460878127603706 0.1539121872396294 0.8203155856208666 0.1796844143791334 0.8455540976988293 0.15444590230117078 0.8460878127603706 0.1539121872396294 0.8203155856208666 0.17968441437913335 0.8460878127603706 0.1539121872396294 0.9831322039236348 0.01686779607636524 0.9766509920221677 0.02334900797783244 0.9294767129600797 0.07052328703992038 0.9779099881075468 0.02209001189245311 0.9639855554693703 0.03601444453062968 0.9476450762690755 0.05235492373092453 0.8554176145849546 0.1445823854150453 0.8561358227869194 0.14386417721308056 0.8460878127603706 0.1539121872396294 0.8600191958105539 0.1399808041894461 0.8513603216273568 0.14863967837264333 0.8509848576564198 0.1490151423435801 0.9688822135249844 0.031117786475015573 0.9639840526166303 0.036015947383369724 0.976219882091656 0.023780117908343966 0.9673100728798384 0.032689927120161555 0.9670209456606625 0.03297905433933749 0.9701198236908023 0.02988017630919771 0.8863434136013797 0.11365658639862036 0.8816350845210815 0.11836491547891846 0.8819980060864048 0.11800199391359521 0.8794758639818944 0.12052413601810563 0.9245210375199944 0.07547896248000563 0.8907104599217752 0.10928954007822482 0.9169197593589625 0.0830802406410376 0.9143844346214137 0.08561556537858622 0.9211499036915006 0.07885009630849933 0.9163932491819824 0.08360675081801759 0.9182054836229441 0.0817945163770559 0.9137398124290261 0.0862601875709739 0.8178819495624678 0.18211805043753215 0.8077431806496611 0.1922568193503388 0.7878201938503593 0.2121798061496407 0.8221225690182123 0.17787743098178765 0.8234395308391792 0.17656046916082083 0.8156648739251086 0.18433512607489141 0.7856896196436658 0.21431038035633423 0.7999787431990815 0.20002125680091856 0.7785465901823931 0.22145340981760692 0.7908049023210406 0.20919509767895947 0.7974535187891322 0.2025464812108678 0.7865515697579345 0.21344843024206547 0.5695434721065349 0.4304565278934652 0.5856923833442313 0.41430761665576876 0.5838232822812367 0.41617671771876336 0.5926958639187585 0.40730413608124144 0.614027600467073 0.38597239953292695 0.6420587747648572 0.3579412252351428 0.8878188393729649 0.11218116062703509 0.8911923346192877 0.10880766538071238 0.8557728227434871 0.14422717725651285 0.8984508395767854 0.10154916042321464 0.8757455384012889 0.12425446159871112 0.8611599545739326 0.1388400454260674 0.8460878127603706 0.1539121872396294 0.8508907990668122 0.14910920093318777 0.8460878127603706 0.1539121872396294 0.8461849010900282 0.1538150989099718 0.8461849010900282 0.15381509890997178 0.8460878127603706 0.1539121872396294 0.9521626972323204 0.04783730276767967 0.9498960705418307 0.050103929458169404 0.9305211026924283 0.06947889730757173 0.9512140010432986 0.04878599895670149 0.955556329730937 0.04444367026906305 0.9430401195603043 0.0569598804396957 0.8639417549677624 0.13605824503223762 0.8635713497512312 0.1364286502487687 0.8547876060168381 0.14521239398316185 0.8556894012772733 0.14431059872272656 0.8508907990668122 0.14910920093318775 0.8555975775863072 0.1444024224136929 0.8812790156114718 0.11872098438852828 0.8726468996172508 0.12735310038274916 0.8501127028424502 0.1498872971575498 0.9013404783182213 0.0986595216817787 0.8666764231083568 0.13332357689164331 0.8526546428129349 0.14734535718706507 0.780790629782544 0.2192093702174559 0.7824237108560361 0.21757628914396387 0.8257597273696818 0.17424027263031808 0.8289228850123573 0.17107711498764266 0.8316422551508541 0.16835774484914587 0.8445398778357279 0.1554601221642721 0.7550709900156457 0.24492900998435427 0.7682938631718651 0.23170613682813493 0.7387825948246826 0.26121740517531755 0.7359091881256307 0.2640908118743693 0.7785811479835695 0.22141885201643052 0.7307896339979101 0.2692103660020899 0.8337355081670121 0.16626449183298783 0.7547743883692173 0.24522561163078274 0.805239652967709 0.1947603470322909 0.8243438684610577 0.17565613153894233 0.8385890668459143 0.1614109331540858 0.8220138217835805 0.17798617821641943 0.8509848576564198 0.14901514234358013 0.8479194715084235 0.1520805284915765 0.8511726192893311 0.148827380710669 0.8515474332533944 0.14845256674660554 0.8506650922763683 0.14933490772363167 0.8465725202568598 0.15342747974314022 0.8460878127603706 0.1539121872396294 0.8461849010900282 0.1538150989099718 0.8456511247848392 0.15434887521516077 0.8460878127603706 0.1539121872396294 0.8460878127603706 0.1539121872396294 0.8460878127603706 0.1539121872396294 0.8588124504641332 0.14118754953586685 0.7981466799012364 0.20185332009876353 0.8608617272605708 0.13913827273942925 0.8416744535747216 0.15832554642527844 0.8336679007035328 0.16633209929646725 0.8341948502470861 0.16580514975291394 0.8582168694425848 0.14178313055741515 0.7464219591563238 0.2535780408436761 0.8156417434620032 0.18435825653799673 0.7931758425978236 0.20682415740217636 0.8215222122176644 0.17847778778233558 0.8491378468769335 0.15086215312306658 0.7399512656015141 0.2600487343984859 0.7061078697461983 0.29389213025380173 0.7211292104423367 0.2788707895576634 0.7439123741944051 0.25608762580559497 0.7483431180226963 0.2516568819773038 0.729952651341263 0.27004734865873703 0.6663620387384739 0.3336379612615261 0.5510925786129068 0.4489074213870933 0.6834752046224777 0.31652479537752237 0.7715284894493055 0.22847151055069453 0.5936858237500158 0.40631417624998417 0.639752260184087 0.36024773981591307 0.5863745329501607 0.4136254670498393 0.5289606501065582 0.4710393498934418 0.5089463644960994 0.49105363550390063 0.5799289357485023 0.42007106425149765 0.561672017613566 0.4383279823864339 0.5431079009772211 0.456892099022779 0.5319520672381325 0.4680479327618676 0.5163752028396067 0.48362479716039336 0.47804604575761295 0.521953954242387 0.6186832696745075 0.38131673032549246 0.6021131648351881 0.39788683516481194 0.5902676803868622 0.40973231961313783 0.8460878127603706 0.1539121872396294 0.8460878127603706 0.1539121872396294 0.8202021685390508 0.1797978314609491 0.8461849010900282 0.1538150989099718 0.8507966811072765 0.14920331889272345 0.8460878127603706 0.1539121872396294 0.8460878127603706 0.1539121872396294 0.8460878127603706 0.1539121872396294 0.8460878127603706 0.1539121872396294 0.8460878127603706 0.1539121872396294 0.8460878127603706 0.1539121872396294 0.8460878127603706 0.1539121872396294 0.8480160678534852 0.15198393214651487 0.8630922128477615 0.13690778715223853 0.8395359770504686 0.16046402294953147 0.8387593041702915 0.16124069582970835 0.8665195068481079 0.13348049315189217 0.8626328350319598 0.13736716496804022 0.8507966811072765 0.14920331889272345 0.8463788329291865 0.15362116707081352 0.8450207193065586 0.15497928069344144 0.8460878127603706 0.1539121872396294 0.8460878127603706 0.1539121872396294 0.8460878127603706 0.1539121872396294 0.7574056499199586 0.24259435008004138 0.7951602099086638 0.20483979009133615 0.8469873639565687 0.1530126360434313 0.7801957049300795 0.21980429506992047 0.775473274608104 0.22452672539189603 0.7188155317493903 0.28118446825060966 0.8196847822296676 0.1803152177703324 0.8231613086909897 0.17683869130901025 0.8452163932675346 0.15478360673246544 0.8187651680783646 0.18123483192163534 0.8461849010900282 0.15381509890997178 0.8462819281760382 0.15371807182396177 0.7610244547581372 0.2389755452418629 0.8082029928578398 0.19179700714216016 0.7485137706647058 0.25148622933529424 0.7849775067323568 0.2150224932676432 0.8494414194912961 0.1505585805087039 0.7777947707585472 0.22220522924145278 0.8202021685390508 0.1797978314609491 0.8229790817482753 0.17702091825172475 0.7956094986464903 0.20439050135350967 0.8450207193065585 0.15497928069344147 0.8502599956756133 0.1497400043243868 0.8508907990668122 0.14910920093318775 0.945619563571279 0.05438043642872101 0.943077972016995 0.05692202798300504 0.8912505618539605 0.1087494381460396 0.9492779918754124 0.050722008124587666 0.9211104055783625 0.07888959442163755 0.9180975372857476 0.08190246271425239 0.8456511247848392 0.15434887521516077 0.8471512683749303 0.1528487316250697 0.8455540976988293 0.15444590230117078 0.8558636298916327 0.14413637010836738 0.8507966811072765 0.14920331889272345 0.8461849010900282 0.15381509890997178 0.9200226341498364 0.07997736585016356 0.8953743891170547 0.1046256108829453 0.9026910942847334 0.09730890571526665 0.9179110584302033 0.08208894156979671 0.9058123867208553 0.09418761327914472 0.9102638452507145 0.08973615474928558 0.7789839958714447 0.22101600412855527 0.7312680572840794 0.26873194271592055 0.811037995054812 0.188962004945188 0.7822223850733122 0.2177776149266878 0.7404708121595965 0.25952918784040346 0.6963075535502885 0.30369244644971144 0.8062827827800488 0.19371721721995117 0.7974166607282873 0.20258333927171263 0.7805710872778205 0.21942891272217943 0.8079135772945782 0.1920864227054218 0.8007000005878778 0.19929999941212212 0.7951087445125226 0.20489125548747744 0.571326464665531 0.42867353533446906 0.602172587903654 0.3978274120963459 0.6058244748457637 0.39417552515423626 0.5972214816687046 0.40277851833129535 0.5768526851859076 0.42314731481409235 0.6156510833569245 0.3843489166430756 0.6404480904945784 0.3595519095054216 0.6340495460532616 0.36595045394673836 0.6048549872995141 0.3951450127004859 0.6464421143794868 0.3535578856205131 0.6375982900519103 0.36240170994808973 0.619969945285377 0.38003005471462303 0.3879506063939975 0.6120493936060024 0.4355783646921577 0.5644216353078422 0.4074036926289435 0.5925963073710564 0.45155183488651973 0.5484481651134802 0.44524058099885455 0.5547594190011454 0.4356655232879193 0.5643344767120807 0.8645403784924682 0.13545962150753169 0.8712029112763224 0.1287970887236776 0.8558637443823255 0.14413625561767449 0.8688938165458473 0.1311061834541527 0.867145830185108 0.13285416981489187 0.8510788569135502 0.14892114308644977 0.8460878127603706 0.1539121872396294 0.8460878127603706 0.1539121872396294 0.8460878127603706 0.1539121872396294 0.8460878127603706 0.1539121872396294 0.8460878127603706 0.1539121872396294 0.8460878127603706 0.1539121872396294 0.8763659799066905 0.12363402009330947 0.9103818303999872 0.08961816960001283 0.923474595441994 0.07652540455800604 0.9132800553134771 0.08671994468652292 0.9036085054557937 0.09639149454420624 0.866964616458894 0.1330353835411059 0.8199635880148399 0.18003641198516007 0.7848390434330886 0.21516095656691145 0.8550510977134498 0.14494890228655022 0.853446357156847 0.14655364284315303 0.789821364343774 0.21017863565622594 0.8512665001057865 0.14873349989421344 0.7716015767960757 0.2283984232039244 0.796076151826395 0.20392384817360495 0.7623829243619058 0.23761707563809426 0.7868022815422632 0.21319771845773683 0.7695482659301679 0.2304517340698322 0.7929923762982436 0.20700762370175638 0.7955871168743122 0.20441288312568784 0.8623326669983108 0.13766733300168926 0.815542668351438 0.1844573316485621 0.7618522599647398 0.2381477400352602 0.8273938676024466 0.17260613239755337 0.8398337087742015 0.16016629122579856 0.6650194054249542 0.3349805945750458 0.6184800702069629 0.38151992979303717 0.6549515771466581 0.3450484228533419 0.6502299752786181 0.3497700247213819 0.6123986428487495 0.3876013571512506 0.6428209096648786 0.3571790903351214 0.6763976000446469 0.3236023999553531 0.5998235724452822 0.4001764275547178 0.7564584480237545 0.24354155197624555 0.7601624525450394 0.2398375474549605 0.8007842205835456 0.19921577941645432 0.8073002074875685 0.1926997925124316 0.8554085622169318 0.14459143778306816 0.7934800778731186 0.20651992212688147 0.8508907990668122 0.14910920093318775 0.8498187815217689 0.15018121847823102 0.8300800905132807 0.16991990948671926 0.8463788329291864 0.15362116707081352 0.8460878127603706 0.1539121872396294 0.8508907990668122 0.14910920093318777 0.8460878127603706 0.1539121872396294 0.8460878127603706 0.1539121872396294 0.8455540976988292 0.1544459023011708 0.8460878127603706 0.1539121872396294 0.765290027944452 0.23470997205554806 0.6590964625810375 0.3409035374189625 0.7414211911911304 0.2585788088088697 0.7781247090056058 0.2218752909943942 0.6885315664186721 0.311468433581328 0.7067502410923626 0.2932497589076374 0.749074749952572 0.2509252500474281 0.737044481431517 0.262955518568483 0.7824933591389662 0.21750664086103377 0.7679715905005657 0.2320284094994342 0.7681152487563238 0.23188475124367627 0.7847040054664597 0.21529599453354026 0.6085166007067393 0.39148339929326065 0.59413239944294 0.40586760055705995 0.5489514129650748 0.4510485870349252 0.6253830731202316 0.37461692687976844 0.6056470358747801 0.3943529641252199 0.5695831714391676 0.43041682856083235 0.6514879622890841 0.3485120377109158 0.5748350207968335 0.4251649792031666 0.5709498439126449 0.42905015608735503 0.6325518054007734 0.36744819459922656 0.5434706482474099 0.4565293517525902 0.5974881551762752 0.4025118448237249 0.4758689797135287 0.5241310202864713 0.4560751820910537 0.5439248179089463 0.44717535246812523 0.5528246475318749 0.4655570890485359 0.5344429109514642 0.5756608741753336 0.4243391258246664 0.47941331012358623 0.5205866898764137 0.5312593420561259 0.4687406579438741 0.4477022110134258 0.5522977889865742 0.45684083449262103 0.543159165507379 0.5732732025094518 0.4267267974905482 0.6552195516552727 0.3447804483447273 0.4700376080842144 0.5299623919157855 0.8460878127603706 0.1539121872396294 0.8460878127603706 0.1539121872396294 0.8460878127603706 0.1539121872396294 0.8461849010900282 0.1538150989099718 0.8460878127603706 0.1539121872396294 0.8509848576564198 0.1490151423435801 0.8460878127603706 0.1539121872396294 0.8460878127603706 0.1539121872396294 0.8460878127603706 0.1539121872396294 0.8460878127603706 0.1539121872396294 0.8460878127603706 0.1539121872396294 0.8460878127603706 0.1539121872396294 0.8505423319262129 0.14945766807378716 0.8515008015521554 0.14849919844784468 0.8258993329633839 0.1741006670366161 0.7802786401423711 0.21972135985762886 0.829855397051217 0.17014460294878306 0.8080969738869215 0.19190302611307847 0.8460878127603706 0.1539121872396294 0.8457484885787526 0.1542515114212473 0.85107879765588 0.14892120234411999 0.8509848576564198 0.14901514234358013 0.8202021685390508 0.1797978314609491 0.8505423319262129 0.14945766807378716 0.8009710054652895 0.1990289945347104 0.7354301496840264 0.2645698503159737 0.7609006017243927 0.2390993982756073 0.7716743144909731 0.2283256855090269 0.8007105951323542 0.1992894048676457 0.7795333477028688 0.22046665229713117 0.8196847822296676 0.1803152177703324 0.8445849181570245 0.15541508184297537 0.8202021685390508 0.1797978314609491 0.8455540976988292 0.15444590230117083 0.8461849010900282 0.15381509890997178 0.845118021470932 0.1548819785290681 0.817044720141425 0.18295527985857485 0.8555908647584541 0.14440913524154583 0.732891835847437 0.267108164152563 0.8446824950529394 0.15531750494706054 0.8502599956756133 0.1497400043243868 0.7466861842199497 0.2533138157800503 0.8457484272000593 0.1542515727999408 0.8451176851875536 0.15488231481244633 0.8186513142640756 0.18134868573592444 0.8256497466386051 0.17435025336139487 0.8176191493067363 0.18238085069326376 0.819394524961714 0.18060547503828597 0.8726222118224026 0.12737778817759732 0.86682787245755 0.13317212754245003 0.8365496411464829 0.16345035885351716 0.8681194024897906 0.13188059751020945 0.8868241659627075 0.11317583403729241 0.8098636169166179 0.19013638308338215 0.8461849010900282 0.15381509890997178 0.855499713487693 0.14450028651230695 0.8461849010900282 0.1538150989099718 0.8510788569135502 0.14892114308644977 0.8458460656866624 0.15415393431333754 0.8461849010900282 0.1538150989099718 0.8006431236298881 0.1993568763701119 0.7727444362598517 0.22725556374014838 0.7989686091432837 0.20103139085671626 0.8176636839283441 0.18233631607165582 0.7962914636048151 0.203708536395185 0.7964011538703015 0.2035988461296985 0.6028522179129547 0.3971477820870453 0.7383165398783258 0.2616834601216742 0.7288886244063507 0.2711113755936493 0.6501669034138439 0.3498330965861561 0.7164488243786145 0.28355117562138554 0.6996720197075754 0.3003279802924246 0.6630596677236632 0.3369403322763368 0.6584009128057805 0.3415990871942196 0.6458795277841026 0.3541204722158975 0.6655601799138825 0.33443982008611756 0.6693647257866748 0.33063527421332517 0.6280004537518084 0.37199954624819165 0.4643472017720317 0.5356527982279683 0.5497411678767141 0.45025883212328593 0.4949480412673171 0.5050519587326829 0.45883065033016246 0.5411693496698375 0.49200945087805037 0.5079905491219496 0.47653321069814913 0.523466789301851 0.4828579951957829 0.5171420048042171 0.49182173669127954 0.5081782633087205 0.4637344575572602 0.5362655424427397 0.4994835677729256 0.5005164322270744 0.5083359073601725 0.4916640926398275 0.4886103923919401 0.5113896076080598 0.34260313136761616 0.6573968686323838 0.38893363192711317 0.6110663680728867 0.35591620269970325 0.6440837973002967 0.40379517586945385 0.5962048241305461 0.4556648378971644 0.5443351621028355 0.3644071779717325 0.6355928220282675 0.8508907990668122 0.14910920093318775 0.8456515226977576 0.15434847730224244 0.8456515226977576 0.15434847730224244 0.85107879765588 0.14892120234412 0.8458456070125686 0.1541543929874314 0.8461849010900282 0.1538150989099718 0.8460878127603706 0.1539121872396294 0.8460878127603706 0.1539121872396294 0.8460878127603706 0.1539121872396294 0.8460878127603706 0.1539121872396294 0.8460878127603706 0.1539121872396294 0.8460878127603706 0.1539121872396294 0.7623117172917001 0.23768828270829984 0.8092474777593575 0.19075252224064246 0.7410784478780273 0.2589215521219726 0.7237608337308226 0.27623916626917744 0.7758959157234766 0.22410408427652342 0.8141916447789901 0.18580835522100989 0.8583086661154878 0.14169133388451222 0.8607760537738582 0.13922394622614184 0.8491285560254422 0.15087144397455773 0.8241221654581513 0.17587783454184877 0.8169328446593948 0.18306715534060528 0.8439132508603163 0.1560867491396838 0.6578226582297853 0.34217734177021486 0.7768347389631635 0.22316526103683648 0.7858194125218678 0.21418058747813218 0.677258946662947 0.3227410533370531 0.8285204024316367 0.17147959756836326 0.6865505579781369 0.31344944202186303 0.7496294725934773 0.25037052740652277 0.8198087598579763 0.18019124014202365 0.7527746300224095 0.2472253699775905 0.8078862439998507 0.19211375600014927 0.798710917785662 0.20128908221433808 0.8031197246967885 0.19688027530321148 0.6185342973773202 0.38146570262267965 0.7675296162137284 0.23247038378627155 0.6007118215090023 0.3992881784909977 0.6855749901011193 0.3144250098988807 0.7573996020407419 0.24260039795925814 0.7196828703256377 0.28031712967436223 0.6682979677189819 0.3317020322810182 0.8244416359781201 0.17555836402187988 0.698352670731462 0.3016473292685381 0.7874467168966718 0.2125532831033282 0.8153921980197413 0.18460780198025864 0.7465372049235145 0.2534627950764855 </TABLE>
    </DEFINITION>
    <DEFINITION>
      <FOR>PA</FOR>
      <GIVEN>Age</GIVEN>
      <GIVEN>SD</GIVEN>
      <GIVEN>SES</GIVEN>
      <GIVEN>Sex</GIVEN>
      <TABLE>0.52475472900392 0.47524527099608 0.5428833611247182 0.45711663887528187 0.4275762499237799 0.5724237500762202 0.5888450198974459 0.4111549801025542 0.48952772930512267 0.5104722706948773 0.5148502943709241 0.48514970562907594 0.39494148883301716 0.6050585111669828 0.514621382352926 0.48537861764707396 0.3895219569261551 0.610478043073845 0.4611707359712718 0.5388292640287282 0.3365388442511984 0.6634611557488015 0.36223112883914843 0.6377688711608515 0.4829601735409794 0.5170398264590207 0.6208712483003067 0.3791287516996934 0.47186467846567254 0.5281353215343274 0.5548514443051717 0.44514855569482825 0.4243042267357392 0.5756957732642608 0.4904598253167623 0.5095401746832378 0.4867642953085396 0.5132357046914603 0.504877509671262 0.4951224903287381 0.5509366591502531 0.4490633408497469 0.5864399104276257 0.4135600895723743 0.5123184060741633 0.4876815939258366 0.5338882413831025 0.46611175861689746 0.4689808880654588 0.5310191119345413 0.5250666683930449 0.47493333160695517 0.46736172199290577 0.5326382780070942 0.4961165629440463 0.5038834370559537 0.3932048467341102 0.6067951532658898 0.42708982151425007 0.5729101784857499 0.5400859557922263 0.45991404420777376 0.5953372497315169 0.40466275026848314 0.517562867033224 0.482437132966776 0.580178621302485 0.41982137869751496 0.47167220469988713 0.5283277953001129 0.5411124462191382 0.4588875537808618 0.5316136949679329 0.4683863050320671 0.4883672365338986 0.5116327634661013 0.5814099536352235 0.4185900463647765 0.4909215268979634 0.5090784731020367 0.4895425095530092 0.5104574904469907 0.4642063716427872 0.5357936283572128 0.48432673299432966 0.5156732670056704 0.47915582679558893 0.520844173204411 0.484082074861898 0.515917925138102 0.45219873101039576 0.5478012689896042 0.39545847976387577 0.6045415202361243 0.3722270904401023 0.6277729095598976 0.5608774801333857 0.4391225198666143 0.5387364839157618 0.46126351608423816 0.518199623189682 0.4818003768103179 0.5124411105706901 0.4875588894293098 0.4489443558691412 0.5510556441308588 0.4474860874702923 0.5525139125297077 0.4924404765354908 0.5075595234645092 0.5333421639217106 0.4666578360782894 0.630909886737456 0.36909011326254404 0.49216955764420695 0.5078304423557931 0.4889701192653949 0.5110298807346051 0.5032560455909423 0.4967439544090577 0.4832028659868594 0.5167971340131408 0.5000886038005871 0.499911396199413 0.47304854760152454 0.5269514523984755 0.4365427612355735 0.5634572387644265 0.39326729363186946 0.6067327063681305 0.37898060718368537 0.6210193928163146 0.5372682543918167 0.46273174560818336 0.5791188731755542 0.42088112682444595 0.5144378069200715 0.48556219307992843 0.5156834264022535 0.4843165735977465 0.4646395234760034 0.5353604765239967 0.47305389266983194 0.5269461073301681 </TABLE>
    </DEFINITION>
    <DEFINITION>
      <FOR>SD</FOR>
      <GIVEN>Age</GIVEN>
      <GIVEN>Sex</GIVEN>
      <TABLE>0.001331380012290855 0.9378243072241871 0.060844312763522014 0.001994870089202092 0.9195077671933298 0.07849736271746814 0.0009012438799963757 0.9078785601984685 0.09122019592153499 0.0007641174650867939 0.8851073925386062 0.11412848999630712 0.0006542656715107195 0.8777964078660341 0.12154932646245506 0.0009825950501734944 0.8395866514460952 0.1594307535037313 0.0006827516015450657 0.8500227972771967 0.14929445112125836 0.0007211694676894005 0.7740699358322394 0.22520889470007122 </TABLE>
    </DEFINITION>
    <DEFINITION>
      <FOR>SES</FOR>
      <GIVEN>Age</GIVEN>
      <GIVEN>Sex</GIVEN>
      <TABLE>0.26503796782058126 0.6089244686976629 0.12603756348175568 0.22735128579977915 0.6062029422931826 0.16644577190703833 0.2481705331946618 0.617614883339708 0.13421458346563017 0.19489782166975733 0.6426536893986279 0.16244848893161482 0.25278338483352747 0.6151676910975457 0.13204892406892688 0.18827309073965026 0.6412176859778614 0.1705092232824883 0.24291245931773472 0.6313853008764554 0.12570223980580994 0.16270726223884868 0.6648549007315172 0.17243783702963408 </TABLE>
    </DEFINITION>
    <DEFINITION>
      <FOR>Sex</FOR>
      <TABLE>0.6951177915891886 0.3048822084108114 </TABLE>
    </DEFINITION>
    <DEFINITION>
      <FOR>Smoking</FOR>
      <GIVEN>Age</GIVEN>
      <GIVEN>PA</GIVEN>
      <GIVEN>Sex</GIVEN>
      <TABLE>0.44633040079006864 0.44094589219637603 0.11272370701355532 0.5296413787970639 0.3377480875556189 0.1326105336473172 0.557463069155995 0.3255151289969835 0.11702180184702154 0.5886502848867223 0.2712931658512864 0.14005654926199132 0.47171446200754624 0.3608027345556038 0.16748280343685 0.5544343368006083 0.2832389702912045 0.16232669290818738 0.5512563893703415 0.2558645662392625 0.19287904439039602 0.5790662614087398 0.2259419441096262 0.19499179448163406 0.3989591475824605 0.35901623812976924 0.24202461428777025 0.49618358420944797 0.327477342333487 0.17633907345706512 0.48374520576657587 0.24334484982520888 0.2729099444082153 0.5423854935034446 0.24202586080335906 0.21558864569319655 0.37681277029955884 0.3034064809428689 0.3197807487575724 0.5438909290145881 0.2699826804960523 0.18612639048935942 0.448682799694379 0.20376841964607367 0.3475487806595474 0.5693515181172701 0.18824400564253288 0.24240447624019706 </TABLE>
    </DEFINITION>
  </NETWORK>
</BIF>
